digraph Tree {
node [shape=box, style="rounded", color="black", fontname="helvetica"] ;
edge [fontname="helvetica"] ;
0 [label="ratings <= 0.0\nsquared_error = 7918282.4\nsamples = 630\nvalue = 2985.5"] ;
1 [label="date_published <= 0.0\nsquared_error = 29222986.5\nsamples = 42\nvalue = 10972.3"] ;
0 -> 1 [labeldistance=2.5, labelangle=45, headlabel="True"] ;
2 [label="num_likes <= 0.0\nsquared_error = 31114158.1\nsamples = 12\nvalue = 15846.7"] ;
1 -> 2 ;
3 [label="squared_error = 29996085.9\nsamples = 8\nvalue = 17408.5"] ;
2 -> 3 ;
4 [label="squared_error = 18714362.4\nsamples = 4\nvalue = 12723.0"] ;
2 -> 4 ;
5 [label="date_published <= 0.0\nsquared_error = 17031582.5\nsamples = 30\nvalue = 9231.5"] ;
1 -> 5 ;
6 [label="squared_error = 11815602.4\nsamples = 13\nvalue = 11341.2"] ;
5 -> 6 ;
7 [label="squared_error = 15493531.3\nsamples = 17\nvalue = 7796.8"] ;
5 -> 7 ;
8 [label="date_published <= 0.0\nsquared_error = 2541659.1\nsamples = 588\nvalue = 2502.7"] ;
0 -> 8 [labeldistance=2.5, labelangle=-45, headlabel="False"] ;
9 [label="ratings <= 0.0\nsquared_error = 5046121.9\nsamples = 157\nvalue = 3938.5"] ;
8 -> 9 ;
10 [label="squared_error = 7644179.1\nsamples = 51\nvalue = 5239.9"] ;
9 -> 10 ;
11 [label="squared_error = 2933564.3\nsamples = 106\nvalue = 3389.3"] ;
9 -> 11 ;
12 [label="ratings <= 0.0\nsquared_error = 673403.8\nsamples = 431\nvalue = 1996.0"] ;
8 -> 12 ;
13 [label="squared_error = 847617.1\nsamples = 258\nvalue = 2272.8"] ;
12 -> 13 ;
14 [label="squared_error = 125621.6\nsamples = 173\nvalue = 1581.3"] ;
12 -> 14 ;
}